FANN_FLO_2.1
num_layers=3
learning_rate=0.700000
connection_rate=1.000000
network_type=0
learning_momentum=0.000000
training_algorithm=2
train_error_function=1
train_stop_function=1
cascade_output_change_fraction=0.010000
quickprop_decay=-0.000100
quickprop_mu=1.750000
rprop_increase_factor=1.200000
rprop_decrease_factor=0.500000
rprop_delta_min=0.000000
rprop_delta_max=50.000000
rprop_delta_zero=0.100000
cascade_output_stagnation_epochs=12
cascade_candidate_change_fraction=0.010000
cascade_candidate_stagnation_epochs=12
cascade_max_out_epochs=150
cascade_min_out_epochs=50
cascade_max_cand_epochs=150
cascade_min_cand_epochs=50
cascade_num_candidate_groups=2
bit_fail_limit=1.00000000000000005551e-01
cascade_candidate_limit=1.00000000000000000000e+03
cascade_weight_multiplier=4.00000000000000022204e-01
cascade_activation_functions_count=10
cascade_activation_functions=3 5 7 8 10 11 14 15 16 17 
cascade_activation_steepnesses_count=4
cascade_activation_steepnesses=2.50000000000000000000e-01 5.00000000000000000000e-01 7.50000000000000000000e-01 1.00000000000000000000e+00 
layer_sizes=19 11 2 
scale_included=0
neurons (num_inputs, activation_function, activation_steepness)=(0, 0, 0.00000000000000000000e+00) (0, 0, 0.00000000000000000000e+00) (0, 0, 0.00000000000000000000e+00) (0, 0, 0.00000000000000000000e+00) (0, 0, 0.00000000000000000000e+00) (0, 0, 0.00000000000000000000e+00) (0, 0, 0.00000000000000000000e+00) (0, 0, 0.00000000000000000000e+00) (0, 0, 0.00000000000000000000e+00) (0, 0, 0.00000000000000000000e+00) (0, 0, 0.00000000000000000000e+00) (0, 0, 0.00000000000000000000e+00) (0, 0, 0.00000000000000000000e+00) (0, 0, 0.00000000000000000000e+00) (0, 0, 0.00000000000000000000e+00) (0, 0, 0.00000000000000000000e+00) (0, 0, 0.00000000000000000000e+00) (0, 0, 0.00000000000000000000e+00) (0, 0, 0.00000000000000000000e+00) (19, 6, 5.00000000000000000000e-01) (19, 6, 5.00000000000000000000e-01) (19, 6, 5.00000000000000000000e-01) (19, 6, 5.00000000000000000000e-01) (19, 6, 5.00000000000000000000e-01) (19, 6, 5.00000000000000000000e-01) (19, 6, 5.00000000000000000000e-01) (19, 6, 5.00000000000000000000e-01) (19, 6, 5.00000000000000000000e-01) (19, 6, 5.00000000000000000000e-01) (0, 6, 0.00000000000000000000e+00) (11, 6, 5.00000000000000000000e-01) (0, 6, 0.00000000000000000000e+00) 
connections (connected_to_neuron, weight)=(0, 3.01764067270688052247e-01) (1, 1.86097803220600516161e-01) (2, 1.61105892315954624117e-01) (3, 1.99991098300070196947e-01) (4, 2.11646205440611273607e-01) (5, 5.50907038522794101354e-01) (6, 2.15651743348946267620e-01) (7, 9.34762406988510985428e-01) (8, -1.80027262020621869887e+00) (9, 5.94425815739359930667e-01) (10, 4.44616152672666464785e-01) (11, 3.57474788514849595167e-01) (12, 8.39533826580576958420e-01) (13, 4.86354177441805313187e-01) (14, 1.49757668897889384407e-01) (15, 3.93177939982238489058e-01) (16, 2.10961569684826572013e-01) (17, -1.09607540677376935623e-02) (18, 9.81767995705813550922e-02) (0, 1.31988182296814993144e+00) (1, 4.18492127744040931514e-01) (2, 3.44138842610202333461e-01) (3, 5.21069560734115033718e-01) (4, 4.64770529953322852901e-01) (5, 1.33748399999341294198e+00) (6, 1.79738124583159568359e-02) (7, 3.52158645488076571528e-01) (8, -3.65104509430206114473e+00) (9, 9.24441583397313637604e-01) (10, 7.17985959194418432716e-01) (11, 2.31209367298423590364e-01) (12, 4.67470585982762087962e-01) (13, 9.74279321197111469743e-01) (14, 1.38615546663814093176e-01) (15, -7.03309907846842330414e-01) (16, 6.93043046673760598786e-01) (17, 2.97851293823606644295e+00) (18, 1.37429828370387113745e-01) (0, 7.75523623300691244964e-01) (1, 1.43452097896975827584e-01) (2, 2.51133498970908419778e-01) (3, 1.33446646158141446481e-01) (4, 2.49077898685378329446e-01) (5, 8.90147652843035430692e-01) (6, 3.76250436143063526906e-01) (7, 4.77058939195327713634e-01) (8, -2.30370298290252017992e+00) (9, 3.62750004941879256037e-01) (10, 2.99259337752872500715e-01) (11, 6.48651805701905170842e-01) (12, 8.91461935260332793973e-01) (13, 4.29331733797319425872e-01) (14, 4.93912230513465916326e-02) (15, 4.59589666575493271949e-01) (16, 2.00374597439525736764e-01) (17, 1.06129533930584085688e+00) (18, 2.18022907694918055554e-01) (0, 3.88448402082262367330e+00) (1, 1.84314479354869470429e-01) (2, 6.19917970636003068385e-02) (3, 2.04056431774150476288e-01) (4, 4.42435268797986697153e-02) (5, 6.22904635217840507710e-02) (6, -3.97421456428228986324e-02) (7, -2.64046048258008841936e-02) (8, -6.69980218809417715775e-01) (9, 7.95211654593078520747e-01) (10, 1.68813562654582444145e-01) (11, 5.20678663652510559379e-02) (12, 3.49983400616185325038e-02) (13, -3.08941390981003032035e-02) (14, 6.26161909505201785819e-02) (15, 4.98458773530732479617e-02) (16, 1.43429051452045375203e-01) (17, 9.85758765540207693157e-01) (18, -5.58532027352231730255e-01) (0, -7.38229591692732878272e+00) (1, -1.05302762723912979315e-01) (2, -2.38745760656346978079e-01) (3, -2.30648246146192253958e-01) (4, -1.05779018736829544256e-01) (5, 4.62189480550222117627e-02) (6, 9.50090974502493662568e-02) (7, -1.64698521502722773635e-02) (8, 1.76394475599351663320e+00) (9, -3.40660581854904248589e-02) (10, 1.18242083690636018423e-01) (11, -1.07554296776440433403e-01) (12, 6.53883386816294098765e-02) (13, 1.00288453312237055282e-01) (14, 1.37686006433264701565e-01) (15, 1.65980599286570579265e-01) (16, -7.73009512696685024968e-02) (17, 2.53718264671838000801e-01) (18, 1.25104330412319220134e-02) (0, -4.32985287347888103682e-01) (1, -1.13742656194486448790e-02) (2, 5.67150258339128715557e-02) (3, -1.15406305261782651805e-01) (4, -8.56030627273836469682e-02) (5, 6.68643313277257483884e-02) (6, -2.71656480675765643618e-01) (7, -3.26971952251099012843e-02) (8, 3.03392344769563626627e+00) (9, -1.57120087353151333120e-01) (10, -3.49432769810410881473e-01) (11, -7.75398702331946271249e-02) (12, -3.14894024834544594693e-01) (13, 3.33454887457458673539e-02) (14, -1.31020806567679632543e-02) (15, 9.77707223805940502104e-03) (16, -3.16828743457097994352e-01) (17, -3.01275865762547667703e-01) (18, -5.03520841778989258763e-01) (0, 5.77916821360877630553e-01) (1, 2.78339452126150466160e-01) (2, 3.01584593036299142277e-01) (3, 2.55225962975149545109e-01) (4, 1.58744982459669531361e-01) (5, 4.45658384601451684759e-01) (6, 8.55611835955343957849e-01) (7, 2.90941090576149641311e-01) (8, -2.76816833651194116328e+00) (9, 2.57174099634875696907e-01) (10, 2.43271459859299710171e-01) (11, 4.12495310078968113743e-01) (12, 1.14220636735710434628e+00) (13, 1.16679516421306384011e+00) (14, 2.19697554783905263376e-01) (15, 2.54823338493604834021e-01) (16, 3.57311378012277414129e-01) (17, 3.99930357084982493476e-02) (18, 1.06101781473325773586e-01) (0, 5.06267599354830455383e-01) (1, -1.69392405836506304562e-01) (2, -7.86017391967015477405e-02) (3, -1.99877752749843956570e-01) (4, -1.56899302093906789501e-01) (5, -3.44010743822926567947e-01) (6, 2.36045996710178181133e-02) (7, -1.73258302098653116374e-01) (8, 5.45183091393173668848e+00) (9, -5.91668663926857241186e-01) (10, -6.19169509084236846519e-01) (11, -1.50522325818150642940e-01) (12, 8.23345448090408854602e-02) (13, -6.60337309039438491443e-02) (14, -2.66645646294779402330e-02) (15, -1.02490759164624647970e-01) (16, -3.96755449854431563317e-01) (17, -5.37413783650612209009e-01) (18, -3.11550679009016617815e-01) (0, 1.34765403977211684072e+00) (1, 3.41311225453762356885e-01) (2, 3.11437288085369468060e-01) (3, 2.76420363942531888135e-01) (4, 2.15536819557098774380e-01) (5, 1.06362856056307220065e+00) (6, 9.41285207194569317757e-01) (7, 3.89295904276921689302e+00) (8, -3.32283328824663115597e+00) (9, 3.08028707066921592084e-01) (10, 6.21291078924140816042e-01) (11, 8.28033520538497769259e-01) (12, 5.84513740013117844008e-01) (13, 4.82640042153987647300e-01) (14, 2.96138193635147983773e-01) (15, 1.06774812729160406555e+00) (16, 5.15465943501879242383e-01) (17, -5.38726335528314836942e-01) (18, -6.85416642199179609873e-02) (0, 8.89004127703393098869e-01) (1, 7.36703998736926934932e-01) (2, 9.30017098180839663080e-01) (3, 7.88381985716411604059e-01) (4, 7.53348431877681745661e-01) (5, 5.96032617859484914469e-01) (6, -9.37196521863463916091e-01) (7, -9.14483045297561525366e-01) (8, -6.13858895691855899202e+00) (9, 3.74532861759518587164e+00) (10, 1.01401082173536272180e+00) (11, -5.19658173144758261941e-01) (12, -9.62791660382555591902e-01) (13, -5.86383023419524640474e-01) (14, -6.63182974382877210573e-01) (15, 2.87657025731125859380e+00) (16, 1.05144952766213806150e+00) (17, 2.33973915019266920368e+00) (18, 2.17000910158409693329e-01) (19, 1.37966028264891182875e-01) (20, 1.99773317944634265508e-01) (21, 1.65667505201407688764e-01) (22, 6.68068445033400015731e-01) (23, 1.25963284756464455327e+00) (24, 5.33270903882088975756e-01) (25, 1.22866361672943111283e-01) (26, 7.76656536953939324874e-01) (27, 1.59805433342813330011e-01) (28, 7.20352001101823846696e-01) (29, -4.09767933257648500622e-02) 
