FANN_FLO_2.1
num_layers=3
learning_rate=0.700000
connection_rate=1.000000
network_type=0
learning_momentum=0.000000
training_algorithm=2
train_error_function=1
train_stop_function=1
cascade_output_change_fraction=0.010000
quickprop_decay=-0.000100
quickprop_mu=1.750000
rprop_increase_factor=1.200000
rprop_decrease_factor=0.500000
rprop_delta_min=0.000000
rprop_delta_max=50.000000
rprop_delta_zero=0.100000
cascade_output_stagnation_epochs=12
cascade_candidate_change_fraction=0.010000
cascade_candidate_stagnation_epochs=12
cascade_max_out_epochs=150
cascade_min_out_epochs=50
cascade_max_cand_epochs=150
cascade_min_cand_epochs=50
cascade_num_candidate_groups=2
bit_fail_limit=1.00000000000000005551e-01
cascade_candidate_limit=1.00000000000000000000e+03
cascade_weight_multiplier=4.00000000000000022204e-01
cascade_activation_functions_count=10
cascade_activation_functions=3 5 7 8 10 11 14 15 16 17 
cascade_activation_steepnesses_count=4
cascade_activation_steepnesses=2.50000000000000000000e-01 5.00000000000000000000e-01 7.50000000000000000000e-01 1.00000000000000000000e+00 
layer_sizes=19 11 2 
scale_included=0
neurons (num_inputs, activation_function, activation_steepness)=(0, 0, 0.00000000000000000000e+00) (0, 0, 0.00000000000000000000e+00) (0, 0, 0.00000000000000000000e+00) (0, 0, 0.00000000000000000000e+00) (0, 0, 0.00000000000000000000e+00) (0, 0, 0.00000000000000000000e+00) (0, 0, 0.00000000000000000000e+00) (0, 0, 0.00000000000000000000e+00) (0, 0, 0.00000000000000000000e+00) (0, 0, 0.00000000000000000000e+00) (0, 0, 0.00000000000000000000e+00) (0, 0, 0.00000000000000000000e+00) (0, 0, 0.00000000000000000000e+00) (0, 0, 0.00000000000000000000e+00) (0, 0, 0.00000000000000000000e+00) (0, 0, 0.00000000000000000000e+00) (0, 0, 0.00000000000000000000e+00) (0, 0, 0.00000000000000000000e+00) (0, 0, 0.00000000000000000000e+00) (19, 6, 5.00000000000000000000e-01) (19, 6, 5.00000000000000000000e-01) (19, 6, 5.00000000000000000000e-01) (19, 6, 5.00000000000000000000e-01) (19, 6, 5.00000000000000000000e-01) (19, 6, 5.00000000000000000000e-01) (19, 6, 5.00000000000000000000e-01) (19, 6, 5.00000000000000000000e-01) (19, 6, 5.00000000000000000000e-01) (19, 6, 5.00000000000000000000e-01) (0, 6, 0.00000000000000000000e+00) (11, 6, 5.00000000000000000000e-01) (0, 6, 0.00000000000000000000e+00) 
connections (connected_to_neuron, weight)=(0, -2.82926320331372913586e+01) (1, -5.74208640218632049290e-01) (2, -6.01678282678978271214e-01) (3, -5.23817457915203399388e-01) (4, -4.52699796021835687565e-01) (5, 4.41368879490415011446e+00) (6, -1.03633088954562779804e+00) (7, 2.40865728026073311341e-01) (8, -3.06996021150677034228e+00) (9, 4.33279673411393062565e+00) (10, 2.99264832658064516835e+00) (11, 1.25610606527824364420e+00) (12, 5.83226497970538715343e-01) (13, 1.81708561429727888381e+00) (14, 6.07806144099418599325e+00) (15, 6.46521651902828065062e-01) (16, 2.47667311143687646213e-01) (17, 1.59516001450326050382e+00) (18, 1.48703877380741245062e+00) (0, 1.35415330970872460625e+01) (1, 2.42341639357333687999e-01) (2, 1.21448116260295446711e-01) (3, 2.10545407491450897730e-01) (4, 2.22327181952720276392e-01) (5, 8.04074569890280421713e-02) (6, 4.19763199552587895624e-01) (7, -6.37601824752803914009e-01) (8, -6.05452734749140031312e+00) (9, 6.29384909308969131558e+00) (10, 1.29506623785163577089e+00) (11, 3.16951027422044950832e-01) (12, -1.23977759213922705817e-01) (13, 8.11716629084672458561e-01) (14, -1.25988697905604851712e+00) (15, 1.97347719863429568732e-02) (16, 4.47429483223978019524e-01) (17, -1.49286718134815865611e+00) (18, 1.12966427817595083116e-01) (0, -8.44661788626703113891e+00) (1, 8.19584630328173968650e-02) (2, 5.01323059099671036742e-02) (3, 4.26831409233566910766e-02) (4, 1.36673992117023163084e-01) (5, 1.67371107168119781505e+00) (6, 5.14914929945557875435e-01) (7, 1.75062293187473183576e-01) (8, 5.50971381727383656413e-03) (9, 2.11339816449365835993e-01) (10, -6.02602383144136624638e-02) (11, 7.51230202521339651689e-02) (12, 1.18193693864030890950e+00) (13, 3.83603122270427421281e-01) (14, 1.39413293466593879444e+00) (15, 3.60106615838429733323e-01) (16, 5.04501303012695356820e-01) (17, 1.86856232678521763657e-02) (18, -6.85453778917793736525e-03) (0, 2.81573789804305896212e+00) (1, 4.95340412112609651540e-01) (2, 3.56050574782029949361e-01) (3, 4.46532567592994533712e-01) (4, 4.67547287794486843282e-01) (5, 1.16534439835925041073e+00) (6, 5.02088280479953219526e+00) (7, 8.82712102535499587574e-01) (8, -4.95872517389393685505e+00) (9, -3.36508295576672666893e-01) (10, 4.22274853231878966042e-01) (11, 1.01286679920867261906e+00) (12, -1.36444314163492702585e-01) (13, 2.03652752315379055592e-02) (14, -8.97761573338727458804e+00) (15, 4.18860021969533813380e-01) (16, 2.71129169459240815243e-01) (17, -7.31114560035266958238e+00) (18, 4.68156992063481514066e+00) (0, 5.30806026477156844834e+00) (1, 5.34594110674832312391e-01) (2, 3.75452622301553684547e-01) (3, 5.57545490093205309279e-01) (4, 3.80196481473421055153e-01) (5, 1.03159047618996302376e+00) (6, 1.15730061452204280315e+00) (7, 9.03551921317108042153e-01) (8, -6.64362933944493150307e+00) (9, 7.34923290124421119129e-02) (10, 2.72352539788367153939e-01) (11, 8.04709689833764940659e+00) (12, -6.66818562740147835477e-01) (13, -3.70870260903536308472e-01) (14, -1.16189176360246264608e+01) (15, 1.70761026642351848581e-01) (16, 6.08520517378701875089e+00) (17, -8.98108020372973925305e+00) (18, 5.13278267952714450928e+00) (0, -1.35137094287585419750e+01) (1, -3.44548121653354220278e-03) (2, 5.46282890383168601156e-02) (3, 1.29553402507679105149e-01) (4, 4.88829787019654654623e-02) (5, 7.78149184864155296637e-01) (6, 2.29742915924311574827e+00) (7, 3.13311635259952980803e+00) (8, 9.06078353775077449672e-02) (9, -1.34903682676116548622e-01) (10, 1.88902232985683732336e-01) (11, 3.05688835049930593413e-02) (12, 9.29284479812114372344e-01) (13, 3.85472297825970866558e-01) (14, 1.40628142440551973102e+00) (15, 2.52628354425745826894e-01) (16, -8.96939541510002880109e-01) (17, 2.63486092169917540673e+00) (18, 1.93553438100728808502e-01) (0, -1.71848763674958213699e+01) (1, -5.04996506860505567360e-01) (2, -4.44190139314185772346e-01) (3, -3.73425396522532870858e-01) (4, -4.22000529607783836372e-01) (5, 2.46302090204795121053e+00) (6, -1.50073172651036674807e+01) (7, 3.90235441933362708911e-02) (8, 1.03771820651680002356e+00) (9, -5.40724182455761148702e-01) (10, 6.21471132310168150603e-01) (11, 9.59276616161138573347e-01) (12, 1.72196887959716327110e+00) (13, 7.70472688654220250193e-01) (14, 5.13278326499010617567e+00) (15, 2.16671296753199543739e-01) (16, 3.35437000480871994057e-01) (17, 1.69566515300554954138e+00) (18, 1.23922670694170133920e+00) (0, 3.02432917052431271543e+01) (1, 2.76143250670012108117e-01) (2, 2.20372667219217999168e-01) (3, 1.90579814519461376854e-01) (4, 2.88751585092123619347e-01) (5, -8.95761751772244707581e-01) (6, -5.01475281622376733992e+00) (7, -3.40136159491775946773e-01) (8, -5.08246162712061533284e+00) (9, 3.75639251018274800131e+00) (10, 4.02347769083995943085e-01) (11, 7.91160422999477752626e+00) (12, -5.20469922743735158299e-01) (13, 3.24791667571140585391e-01) (14, -4.52437686841381569991e+00) (15, 2.03990014905223754349e-01) (16, 4.40525671757320880229e-01) (17, -2.78000871036765051514e+00) (18, 3.57086266322518774974e-01) (0, 4.49532244170889896395e+01) (1, 3.35189418372073832941e-01) (2, 3.26599539693752105585e-01) (3, 2.97657401737132731867e-01) (4, 3.18089665349880035272e-01) (5, -1.04106303966025315333e+00) (6, 1.89022096855024912543e-01) (7, 1.98200950109945400746e-01) (8, -5.16054091790139679574e+00) (9, 5.57636827935130696687e-01) (10, -3.59307122451143823305e-01) (11, -2.63966396093481048268e-01) (12, -3.46584256935346446404e-01) (13, -1.83836056291146382469e-01) (14, -5.80866045621764648388e+00) (15, -2.27091797590822860875e-02) (16, -8.80138416988393124107e-01) (17, -9.66672741286782688519e+00) (18, 2.18159266871331358750e-01) (0, 5.64915841123158557480e+00) (1, 9.45955660358474559324e-02) (2, 1.25867679359059181365e-01) (3, 3.33302688017892284611e-02) (4, 7.68626775756881819301e-02) (5, 1.19085326220040865763e+00) (6, -3.82144592650649261856e+00) (7, -7.39555775587358632528e-01) (8, 1.53944348902271488377e+00) (9, 1.77054881666118446581e+00) (10, -8.01130616472396028804e-01) (11, -1.34504595237189850110e+00) (12, 1.87786619368122104090e-01) (13, -3.85536141613965099850e-01) (14, 1.60255758037102746805e+00) (15, -3.22243455735228834236e-01) (16, -6.13932012329328369304e+00) (17, 5.87209804255650240634e+01) (18, -2.51971881968009077390e-02) (19, -6.30397596015628947086e-01) (20, 3.66089339176744577031e-01) (21, 1.00797307425936089054e+00) (22, 1.90748574211258237199e-01) (23, 2.62316055120861257866e-01) (24, 5.17790368832680814037e-01) (25, -7.17172154270837469703e-01) (26, 8.62651974927986842090e-01) (27, -2.36112194969040034565e+00) (28, 5.01189345835327371148e-01) (29, 3.44816554518853679578e-01) 
