FANN_FLO_2.1
num_layers=3
learning_rate=0.700000
connection_rate=1.000000
network_type=0
learning_momentum=0.000000
training_algorithm=2
train_error_function=1
train_stop_function=1
cascade_output_change_fraction=0.010000
quickprop_decay=-0.000100
quickprop_mu=1.750000
rprop_increase_factor=1.200000
rprop_decrease_factor=0.500000
rprop_delta_min=0.000000
rprop_delta_max=50.000000
rprop_delta_zero=0.100000
cascade_output_stagnation_epochs=12
cascade_candidate_change_fraction=0.010000
cascade_candidate_stagnation_epochs=12
cascade_max_out_epochs=150
cascade_min_out_epochs=50
cascade_max_cand_epochs=150
cascade_min_cand_epochs=50
cascade_num_candidate_groups=2
bit_fail_limit=1.00000000000000005551e-01
cascade_candidate_limit=1.00000000000000000000e+03
cascade_weight_multiplier=4.00000000000000022204e-01
cascade_activation_functions_count=10
cascade_activation_functions=3 5 7 8 10 11 14 15 16 17 
cascade_activation_steepnesses_count=4
cascade_activation_steepnesses=2.50000000000000000000e-01 5.00000000000000000000e-01 7.50000000000000000000e-01 1.00000000000000000000e+00 
layer_sizes=14 4 2 
scale_included=0
neurons (num_inputs, activation_function, activation_steepness)=(0, 0, 0.00000000000000000000e+00) (0, 0, 0.00000000000000000000e+00) (0, 0, 0.00000000000000000000e+00) (0, 0, 0.00000000000000000000e+00) (0, 0, 0.00000000000000000000e+00) (0, 0, 0.00000000000000000000e+00) (0, 0, 0.00000000000000000000e+00) (0, 0, 0.00000000000000000000e+00) (0, 0, 0.00000000000000000000e+00) (0, 0, 0.00000000000000000000e+00) (0, 0, 0.00000000000000000000e+00) (0, 0, 0.00000000000000000000e+00) (0, 0, 0.00000000000000000000e+00) (0, 0, 0.00000000000000000000e+00) (14, 6, 5.00000000000000000000e-01) (14, 6, 5.00000000000000000000e-01) (14, 6, 5.00000000000000000000e-01) (0, 6, 0.00000000000000000000e+00) (4, 4, 5.00000000000000000000e-01) (0, 4, 0.00000000000000000000e+00) 
connections (connected_to_neuron, weight)=(0, -1.54340114979562770259e+00) (1, 7.68353197048333491637e-01) (2, -7.31477555629498565892e-01) (3, 9.15089736253101193597e-01) (4, 3.57271719450751756852e-01) (5, 1.44066111546291919510e+00) (6, 8.38056692663950025812e-02) (7, 4.67782266083993703010e-01) (8, -2.97792414008676464832e+00) (9, 8.66853855757278357608e-01) (10, 9.22700296545934506298e+00) (11, 2.31451872410357972765e-01) (12, 2.64043382974446794176e-01) (13, -1.70316456756844480935e-01) (0, -1.94061821252522581638e+00) (1, 1.97672809365571278128e+00) (2, -9.62202979709390726626e-01) (3, 1.43205142368837168299e+00) (4, 3.67104805340510986778e-01) (5, 2.47599493287551020160e+00) (6, -1.11901209197267120787e-01) (7, 3.63709610101969116336e-01) (8, -2.37860551501227002191e+00) (9, 5.90415148555800461949e-01) (10, 2.24869748094089949575e+01) (11, -5.17928990247051856954e-03) (12, 2.55002265918033987901e-02) (13, -9.53006586517576304018e-01) (0, -5.40772091168949642359e-01) (1, 3.53983023596358803431e-01) (2, -2.15193129458680298960e-01) (3, 6.65180152922946521521e-01) (4, 8.93769573595269539723e-01) (5, 6.87396013054601406900e-01) (6, 2.34377799748097415122e-01) (7, 3.87947532689798979533e-01) (8, -8.22215823528057887515e-01) (9, 5.61003808534571213329e-01) (10, 3.93587745021155832603e+00) (11, 3.87092464338520791944e-01) (12, 4.14245114396790292677e-01) (13, -1.11223390493644741506e-01) (14, 3.53062584001319912375e+00) (15, 2.24596992173202956167e+01) (16, 8.97775579108875732004e-01) (17, -9.23566926228589935022e-01) 
